FANN_FLO_2.1
num_layers=3
learning_rate=0.700000
connection_rate=1.000000
network_type=0
learning_momentum=0.000000
training_algorithm=2
train_error_function=1
train_stop_function=0
cascade_output_change_fraction=0.010000
quickprop_decay=-0.000100
quickprop_mu=1.750000
rprop_increase_factor=1.200000
rprop_decrease_factor=0.500000
rprop_delta_min=0.000000
rprop_delta_max=50.000000
rprop_delta_zero=0.100000
cascade_output_stagnation_epochs=12
cascade_candidate_change_fraction=0.010000
cascade_candidate_stagnation_epochs=12
cascade_max_out_epochs=150
cascade_min_out_epochs=50
cascade_max_cand_epochs=150
cascade_min_cand_epochs=50
cascade_num_candidate_groups=2
bit_fail_limit=3.49999994039535522461e-01
cascade_candidate_limit=1.00000000000000000000e+03
cascade_weight_multiplier=4.00000005960464477539e-01
cascade_activation_functions_count=10
cascade_activation_functions=3 5 7 8 10 11 14 15 16 17 
cascade_activation_steepnesses_count=4
cascade_activation_steepnesses=2.50000000000000000000e-01 5.00000000000000000000e-01 7.50000000000000000000e-01 1.00000000000000000000e+00 
layer_sizes=27 14 4 
scale_included=0
neurons (num_inputs, activation_function, activation_steepness)=(0, 0, 0.00000000000000000000e+00) (0, 0, 0.00000000000000000000e+00) (0, 0, 0.00000000000000000000e+00) (0, 0, 0.00000000000000000000e+00) (0, 0, 0.00000000000000000000e+00) (0, 0, 0.00000000000000000000e+00) (0, 0, 0.00000000000000000000e+00) (0, 0, 0.00000000000000000000e+00) (0, 0, 0.00000000000000000000e+00) (0, 0, 0.00000000000000000000e+00) (0, 0, 0.00000000000000000000e+00) (0, 0, 0.00000000000000000000e+00) (0, 0, 0.00000000000000000000e+00) (0, 0, 0.00000000000000000000e+00) (0, 0, 0.00000000000000000000e+00) (0, 0, 0.00000000000000000000e+00) (0, 0, 0.00000000000000000000e+00) (0, 0, 0.00000000000000000000e+00) (0, 0, 0.00000000000000000000e+00) (0, 0, 0.00000000000000000000e+00) (0, 0, 0.00000000000000000000e+00) (0, 0, 0.00000000000000000000e+00) (0, 0, 0.00000000000000000000e+00) (0, 0, 0.00000000000000000000e+00) (0, 0, 0.00000000000000000000e+00) (0, 0, 0.00000000000000000000e+00) (0, 0, 0.00000000000000000000e+00) (27, 5, 5.00000000000000000000e-01) (27, 5, 5.00000000000000000000e-01) (27, 5, 5.00000000000000000000e-01) (27, 5, 5.00000000000000000000e-01) (27, 5, 5.00000000000000000000e-01) (27, 5, 5.00000000000000000000e-01) (27, 5, 5.00000000000000000000e-01) (27, 5, 5.00000000000000000000e-01) (27, 5, 5.00000000000000000000e-01) (27, 5, 5.00000000000000000000e-01) (27, 5, 5.00000000000000000000e-01) (27, 5, 5.00000000000000000000e-01) (27, 5, 5.00000000000000000000e-01) (0, 5, 5.00000000000000000000e-01) (14, 5, 5.00000000000000000000e-01) (14, 5, 5.00000000000000000000e-01) (14, 5, 5.00000000000000000000e-01) (0, 5, 5.00000000000000000000e-01) 
connections (connected_to_neuron, weight)=(0, 6.39063119888305664062e+00) (1, -2.32540190219879150391e-01) (2, 3.60907614231109619141e-01) (3, 6.74681091308593750000e+00) (4, 2.03364825248718261719e+00) (5, 1.11473846435546875000e+01) (6, 6.79592990875244140625e+00) (7, 1.73981876373291015625e+01) (8, 1.92777442932128906250e+00) (9, 1.46873688697814941406e+00) (10, 1.29862880706787109375e+01) (11, 2.59217905998229980469e+00) (12, 5.42360973358154296875e+00) (13, 5.52208805084228515625e+00) (14, 5.46241617202758789062e+00) (15, 5.53201675415039062500e+00) (16, 4.12619590759277343750e+00) (17, 4.76626300811767578125e+00) (18, 4.62031173706054687500e+00) (19, 4.81736040115356445312e+00) (20, 6.12874650955200195312e+00) (21, -5.76954893767833709717e-02) (22, 3.04246425628662109375e+01) (23, 2.73706221580505371094e+00) (24, 3.61335849761962890625e+00) (25, -1.20771694183349609375e+00) (26, -4.40567541122436523438e+00) (0, 3.06508016586303710938e+00) (1, -1.04051065444946289062e+00) (2, 5.31908512115478515625e+00) (3, 5.77956295013427734375e+00) (4, 5.73585081100463867188e+00) (5, -4.95787391662597656250e+01) (6, 4.82538461685180664062e+00) (7, -5.49009284973144531250e+01) (8, 5.02822256088256835938e+00) (9, 2.16964673995971679688e+00) (10, -5.14947395324707031250e+01) (11, 1.19044065475463867188e+00) (12, 6.51547968387603759766e-01) (13, 1.33331501483917236328e+00) (14, 2.22661828994750976562e+00) (15, 1.57288753986358642578e+00) (16, 5.62652063369750976562e+00) (17, 6.23827815055847167969e-01) (18, -8.35532546043395996094e-01) (19, -6.33286857604980468750e+00) (20, 4.65010118484497070312e+00) (21, -1.36310167312622070312e+01) (22, -4.86334800720214843750e+01) (23, -3.58124434947967529297e-01) (24, 4.30133056640625000000e+00) (25, 8.77611255645751953125e+00) (26, 4.26618623733520507812e+00) (0, 5.73191344738006591797e-01) (1, 5.65693330764770507812e+00) (2, 7.02795171737670898438e+00) (3, 4.93211555480957031250e+00) (4, 4.92901653051376342773e-01) (5, 6.79866743087768554688e+00) (6, 6.40774393081665039062e+00) (7, 3.56195545196533203125e+00) (8, 5.38503885269165039062e+00) (9, 9.94935154914855957031e-01) (10, 7.61584901809692382812e+00) (11, 3.12287425994873046875e+00) (12, 2.28753209114074707031e+00) (13, 3.07981348037719726562e+00) (14, 6.34239578247070312500e+00) (15, 5.36569499969482421875e+00) (16, 8.02859783172607421875e+00) (17, 2.87192988395690917969e+00) (18, 2.56976068019866943359e-01) (19, 6.22617435455322265625e+00) (20, 7.15922069549560546875e+00) (21, 4.28863435983657836914e-01) (22, 7.47151899337768554688e+00) (23, 9.07148599624633789062e-01) (24, 3.34365224838256835938e+00) (25, 3.48767399787902832031e+00) (26, 5.27703189849853515625e+00) (0, 3.99551913142204284668e-02) (1, 4.24466037750244140625e+00) (2, 5.58451652526855468750e+00) (3, 6.35307025909423828125e+00) (4, 3.91817402839660644531e+00) (5, 5.99172019958496093750e+00) (6, 2.62343478202819824219e+00) (7, 7.40062475204467773438e+00) (8, 2.20392420887947082520e-02) (9, 2.59726643562316894531e+00) (10, 1.29329109191894531250e+00) (11, 3.39354991912841796875e-01) (12, 5.57818841934204101562e+00) (13, 2.37827801704406738281e+00) (14, 6.08927917480468750000e+00) (15, -5.44027447700500488281e-01) (16, 1.27046020507812500000e+03) (17, 1.03234536945819854736e-01) (18, 2.69655680656433105469e+00) (19, 5.49724149703979492188e+00) (20, 4.52860260009765625000e+01) (21, 2.89008116722106933594e+00) (22, 1.00166244506835937500e+01) (23, 2.08097915649414062500e+01) (24, -1.20565385818481445312e+01) (25, -1.21332298278808593750e+02) (26, 4.04020357131958007812e+00) (0, -1.63867969512939453125e+01) (1, 5.79823780059814453125e+00) (2, -1.70285284519195556641e-01) (3, 5.74498844146728515625e+00) (4, 2.75372529029846191406e+00) (5, 1.58978261947631835938e+01) (6, 5.73897075653076171875e+00) (7, 9.18471221923828125000e+01) (8, 8.23555588722229003906e-01) (9, 4.01833724975585937500e+00) (10, 2.15346012115478515625e+01) (11, 4.82376909255981445312e+00) (12, 8.02499866485595703125e+00) (13, 1.46293079853057861328e+00) (14, 4.34155225753784179688e+00) (15, 1.97094106674194335938e+00) (16, 7.47209405899047851562e+00) (17, 4.70259857177734375000e+00) (18, 6.19529533386230468750e+00) (19, 2.52237243652343750000e+01) (20, 4.25688552856445312500e+00) (21, 7.73746681213378906250e+00) (22, 4.15361328125000000000e+01) (23, 1.60319483280181884766e+00) (24, -3.03956001996994018555e-01) (25, -1.01149520874023437500e+02) (26, 5.68312025070190429688e+00) (0, 4.29428863525390625000e+00) (1, 2.10482740402221679688e+00) (2, 5.62036561965942382812e+00) (3, 1.59319007396697998047e+00) (4, 1.02098035812377929688e+00) (5, 2.43969702720642089844e+00) (6, 1.63535034656524658203e+00) (7, 2.87186741828918457031e+00) (8, 3.38689637184143066406e+00) (9, 3.25942730903625488281e+00) (10, 2.74830842018127441406e+00) (11, 5.56933546066284179688e+00) (12, 2.29889750480651855469e+00) (13, 5.47059774398803710938e+00) (14, 2.61672735214233398438e+00) (15, 7.12510061264038085938e+00) (16, 9.97313976287841796875e+00) (17, 2.52902245521545410156e+00) (18, 3.48798298835754394531e+00) (19, 2.73293524980545043945e-01) (20, 5.21796607971191406250e+00) (21, 3.09322237968444824219e+00) (22, 1.29383158683776855469e+00) (23, 2.47642293572425842285e-01) (24, 5.81734180450439453125e+00) (25, 7.85832643508911132812e+00) (26, 3.74285578727722167969e+00) (0, 7.20923519134521484375e+00) (1, 7.18784713745117187500e+00) (2, 6.64354276657104492188e+00) (3, 6.54418897628784179688e+00) (4, 4.91557025909423828125e+00) (5, 3.56815195083618164062e+00) (6, 3.51014041900634765625e+00) (7, 5.39910697937011718750e+00) (8, 2.48003792762756347656e+00) (9, 5.44621849060058593750e+00) (10, 6.59744930267333984375e+00) (11, 6.61644744873046875000e+00) (12, 6.56377649307250976562e+00) (13, 5.52086734771728515625e+00) (14, 2.53030180931091308594e+00) (15, 1.90813589096069335938e+00) (16, 6.81237649917602539062e+00) (17, 4.76459324359893798828e-01) (18, 9.02239382266998291016e-01) (19, 2.37910556793212890625e+00) (20, 7.38858127593994140625e+00) (21, 4.79058122634887695312e+00) (22, 5.28416442871093750000e+00) (23, 6.37118053436279296875e+00) (24, 5.78138971328735351562e+00) (25, 1.52251424789428710938e+01) (26, -4.96313381195068359375e+00) (0, 5.41505575180053710938e+00) (1, 6.14121437072753906250e+00) (2, 6.86032962799072265625e+00) (3, 5.17092466354370117188e+00) (4, 3.59284710884094238281e+00) (5, 1.31719484925270080566e-01) (6, 1.47680312395095825195e-01) (7, 2.10781121253967285156e+00) (8, 8.14858973026275634766e-01) (9, 3.00538849830627441406e+00) (10, 6.30159080028533935547e-01) (11, 3.92446041107177734375e+00) (12, 1.10722434520721435547e+00) (13, 1.44552385807037353516e+00) (14, 6.95547485351562500000e+00) (15, 6.82611227035522460938e+00) (16, 1.26510131835937500000e+03) (17, 5.09029746055603027344e-01) (18, 3.36774396896362304688e+00) (19, 3.15351366996765136719e-01) (20, 4.23320808410644531250e+01) (21, 6.68143367767333984375e+00) (22, 2.20933413505554199219e+00) (23, 4.40111160278320312500e+00) (24, -3.58177852630615234375e+00) (25, -8.44118270874023437500e+01) (26, 2.38280296325683593750e+00) (0, 4.06555861234664916992e-01) (1, 2.00719499588012695312e+00) (2, 2.13352537155151367188e+00) (3, 1.01592290401458740234e+00) (4, 2.04735398292541503906e+00) (5, 7.20364999771118164062e+00) (6, 7.00238370895385742188e+00) (7, 8.30004787445068359375e+00) (8, -2.31103748083114624023e-01) (9, 4.04144001007080078125e+00) (10, 6.06976222991943359375e+00) (11, 5.99153995513916015625e+00) (12, 2.94125056266784667969e+00) (13, 5.44582843780517578125e+00) (14, 1.62767648696899414062e+00) (15, 2.10674786567687988281e+00) (16, 2.76232767105102539062e+00) (17, 3.69935536384582519531e+00) (18, 7.08620500564575195312e+00) (19, -1.85666177421808242798e-02) (20, 5.35414266586303710938e+00) (21, 2.03227138519287109375e+00) (22, 1.68877239227294921875e+01) (23, 4.37196350097656250000e+00) (24, 4.95659589767456054688e+00) (25, 5.28107261657714843750e+00) (26, 5.82600688934326171875e+00) (0, 1.26613032817840576172e+00) (1, 6.38052940368652343750e+00) (2, 6.52976512908935546875e+00) (3, 1.63196229934692382812e+00) (4, 4.33213615417480468750e+00) (5, 1.56938278675079345703e+00) (6, 6.41377687454223632812e+00) (7, 6.31536769866943359375e+00) (8, 2.97716259956359863281e+00) (9, 5.62588024139404296875e+00) (10, 6.08448553085327148438e+00) (11, 1.85289651155471801758e-01) (12, 2.08734798431396484375e+00) (13, 3.51060056686401367188e+00) (14, 9.76543724536895751953e-01) (15, 7.16036200523376464844e-01) (16, 5.01057004928588867188e+00) (17, 3.35303235054016113281e+00) (18, 7.00713396072387695312e+00) (19, 1.34764802455902099609e+00) (20, 6.04919528961181640625e+00) (21, 4.79606819152832031250e+00) (22, 1.43920707702636718750e+00) (23, 1.89706504344940185547e+00) (24, 3.87364888191223144531e+00) (25, -7.31689333915710449219e-02) (26, -4.88585662841796875000e+00) (0, 3.40461277961730957031e+00) (1, 6.51981830596923828125e+00) (2, 6.29976654052734375000e+00) (3, 6.64575433731079101562e+00) (4, 4.09832763671875000000e+00) (5, 5.29983425140380859375e+00) (6, 3.09378814697265625000e+00) (7, 3.34226965904235839844e+00) (8, 4.53100061416625976562e+00) (9, 7.29048061370849609375e+00) (10, 6.24627208709716796875e+00) (11, 2.35643362998962402344e+00) (12, 5.28905153274536132812e-01) (13, 3.00206232070922851562e+00) (14, 2.95072627067565917969e+00) (15, 2.75445985794067382812e+00) (16, 1.15155563354492187500e+01) (17, 4.05066847801208496094e-01) (18, 3.04379057884216308594e+00) (19, 3.14869433641433715820e-01) (20, 5.04805421829223632812e+00) (21, 1.65642774105072021484e+00) (22, 4.33933067321777343750e+00) (23, 5.64536619186401367188e+00) (24, 1.93195223808288574219e+00) (25, 7.65940523147583007812e+00) (26, -5.64711761474609375000e+00) (0, -4.92285728454589843750e+00) (1, -2.13828516006469726562e+00) (2, 3.07787084579467773438e+00) (3, 2.55752921104431152344e+00) (4, 2.22677683830261230469e+00) (5, 6.23313045501708984375e+00) (6, 8.74994933605194091797e-01) (7, 1.20023179054260253906e+00) (8, 2.57677364349365234375e+00) (9, 5.38553178310394287109e-01) (10, 4.30966329574584960938e+00) (11, 5.91091811656951904297e-01) (12, 6.68128395080566406250e+00) (13, -4.42257290706038475037e-03) (14, 3.33464890718460083008e-02) (15, 9.22922641038894653320e-02) (16, 2.77807369232177734375e+01) (17, 6.16846370697021484375e+00) (18, 1.58063817024230957031e+00) (19, 2.89385676383972167969e+00) (20, 2.53155994415283203125e+01) (21, 7.60163354873657226562e+00) (22, 5.74850559234619140625e+00) (23, 5.73234748840332031250e+00) (24, -2.06960220336914062500e+01) (25, -2.90405548095703125000e+02) (26, -1.68433094024658203125e+00) (0, -3.26115824282169342041e-02) (1, 3.12565493583679199219e+00) (2, 6.54162979125976562500e+00) (3, 1.19336986541748046875e+00) (4, 2.04719495773315429688e+00) (5, 2.54066181182861328125e+00) (6, 2.62146234512329101562e-01) (7, 7.44484376907348632812e+00) (8, 4.99596929550170898438e+00) (9, 2.41043734550476074219e+00) (10, 2.38450098037719726562e+00) (11, 1.90457582473754882812e+00) (12, 3.16652917861938476562e+00) (13, 2.24856495857238769531e+00) (14, 5.98770666122436523438e+00) (15, 5.22943878173828125000e+00) (16, 1.13654441833496093750e+01) (17, 7.87652507424354553223e-02) (18, 1.67465642094612121582e-01) (19, 5.35133790969848632812e+00) (20, 3.90930652618408203125e+00) (21, 2.28195524215698242188e+00) (22, 1.28875291347503662109e+00) (23, 1.51702356338500976562e+00) (24, 2.14611053466796875000e+00) (25, 2.93804812431335449219e+00) (26, -4.80543422698974609375e+00) (27, 1.34713344573974609375e+01) (28, -2.02878564596176147461e-01) (29, 2.68893146514892578125e+00) (30, 1.80357709527015686035e-01) (31, 4.63458919525146484375e+00) (32, 3.26289319992065429688e+00) (33, 6.15271091461181640625e+00) (34, 4.96704369783401489258e-01) (35, 2.91109752655029296875e+00) (36, 3.22147750854492187500e+00) (37, 5.51365756988525390625e+00) (38, 1.53864192962646484375e+00) (39, 4.37111902236938476562e+00) (40, -2.49811744689941406250e+00) (27, -4.70700442790985107422e-01) (28, 2.24010854959487915039e-01) (29, 2.34474682807922363281e+00) (30, 5.64922952651977539062e+00) (31, 5.55355501174926757812e+00) (32, 2.90374207496643066406e+00) (33, 8.54695701599121093750e+00) (34, 5.75679636001586914062e+00) (35, -3.06878626346588134766e-01) (36, 4.41584730148315429688e+00) (37, 8.28940486907958984375e+00) (38, 5.08281564712524414062e+00) (39, 5.94614458084106445312e+00) (40, -4.43294334411621093750e+00) (27, 2.61094808578491210938e+00) (28, 5.42445373535156250000e+00) (29, 3.83012652397155761719e+00) (30, 1.11936795711517333984e+00) (31, -1.49606347084045410156e+00) (32, 4.11882066726684570312e+00) (33, 8.09461021423339843750e+00) (34, 1.97193455696105957031e+00) (35, 1.69169569015502929688e+00) (36, 3.65163111686706542969e+00) (37, 8.05823993682861328125e+00) (38, -3.14650702476501464844e+00) (39, 8.83870124816894531250e+00) (40, 3.46379923820495605469e+00) 
